<?xml version="1.0"?>
<opencv_storage>
<cascade>
  <stageType>BOOST</stageType>
  <featureType>HAAR</featureType>
  <height>30</height>
  <width>30</width>
  <stageParams>
    <boostType>GAB</boostType>
    <minHitRate>9.9500000476837158e-01</minHitRate>
    <maxFalseAlarm>5.0000000000000000e-01</maxFalseAlarm>
    <weightTrimRate>9.4999998807907104e-01</weightTrimRate>
    <maxDepth>1</maxDepth>
    <maxWeakCount>100</maxWeakCount></stageParams>
  <featureParams>
    <maxCatCount>0</maxCatCount>
    <featSize>1</featSize>
    <mode>BASIC</mode></featureParams>
  <stageNum>20</stageNum>
  <stages>
    <!-- stage 0 -->
    <_>
      <maxWeakCount>2</maxWeakCount>
      <stageThreshold>2.7048295363783836e-02</stageThreshold>
      <weakClassifiers>
        <_>
          <internalNodes>
            0 -1 14 4.6127952635288239e-02</internalNodes>
          <leafValues>
            -9.4444441795349121e-01 1.</leafValues></_>
        <_>
          <internalNodes>
            0 -1 18 4.4892210513353348e-02</internalNodes>
          <leafValues>
            -9.7295171022415161e-01 9.7422790527343750e-01</leafValues></_></weakClassifiers></_>
    <!-- stage 1 -->
    <_>
      <maxWeakCount>2</maxWeakCount>
      <stageThreshold>-6.6307283937931061e-02</stageThreshold>
      <weakClassifiers>
        <_>
          <internalNodes>
            0 -1 33 -3.7239968776702881e-02</internalNodes>
          <leafValues>
            8.0281692743301392e-01 -8.2608693838119507e-01</leafValues></_>
        <_>
          <internalNodes>
            0 -1 8 2.5332432240247726e-02</internalNodes>
          <leafValues>
            -8.2721012830734253e-01 7.5977969169616699e-01</leafValues></_></weakClassifiers></_>
    <!-- stage 2 -->
    <_>
      <maxWeakCount>3</maxWeakCount>
      <stageThreshold>-3.7857753038406372e-01</stageThreshold>
      <weakClassifiers>
        <_>
          <internalNodes>
            0 -1 53 5.5157477036118507e-03</internalNodes>
          <leafValues>
            -6.4705884456634521e-01 6.1111110448837280e-01</leafValues></_>
        <_>
          <internalNodes>
            0 -1 31 -1.5304423868656158e-03</internalNodes>
          <leafValues>
            8.4452784061431885e-01 -5.0428014993667603e-01</leafValues></_>
        <_>
          <internalNodes>
            0 -1 16 2.3841451853513718e-02</internalNodes>
          <leafValues>
            -4.8540848493576050e-01 8.2811307907104492e-01</leafValues></_></weakClassifiers></_>
    <!-- stage 3 -->
    <_>
      <maxWeakCount>2</maxWeakCount>
      <stageThreshold>-7.4909098446369171e-02</stageThreshold>
      <weakClassifiers>
        <_>
          <internalNodes>
            0 -1 34 -3.5639174282550812e-02</internalNodes>
          <leafValues>
            5.5555558204650879e-01 -7.6271188259124756e-01</leafValues></_>
        <_>
          <internalNodes>
            0 -1 20 4.7261238098144531e-02</internalNodes>
          <leafValues>
            -6.1596488952636719e-01 6.8780279159545898e-01</leafValues></_></weakClassifiers></_>
    <!-- stage 4 -->
    <_>
      <maxWeakCount>2</maxWeakCount>
      <stageThreshold>-4.0456160902976990e-02</stageThreshold>
      <weakClassifiers>
        <_>
          <internalNodes>
            0 -1 11 -3.4162677824497223e-02</internalNodes>
          <leafValues>
            7.4603176116943359e-01 -6.1038959026336670e-01</leafValues></_>
        <_>
          <internalNodes>
            0 -1 24 -1.8431786447763443e-03</internalNodes>
          <leafValues>
            6.3682389259338379e-01 -7.8648793697357178e-01</leafValues></_></weakClassifiers></_>
    <!-- stage 5 -->
    <_>
      <maxWeakCount>2</maxWeakCount>
      <stageThreshold>5.4710414260625839e-03</stageThreshold>
      <weakClassifiers>
        <_>
          <internalNodes>
            0 -1 57 2.5230350438505411e-03</internalNodes>
          <leafValues>
            -4.4680851697921753e-01 9.1304349899291992e-01</leafValues></_>
        <_>
          <internalNodes>
            0 -1 40 -1.0083801113069057e-02</internalNodes>
          <leafValues>
            5.7385301589965820e-01 -9.0757244825363159e-01</leafValues></_></weakClassifiers></_>
    <!-- stage 6 -->
    <_>
      <maxWeakCount>4</maxWeakCount>
      <stageThreshold>-5.4026961326599121e-01</stageThreshold>
      <weakClassifiers>
        <_>
          <internalNodes>
            0 -1 60 -3.8506912533193827e-03</internalNodes>
          <leafValues>
            -9.1111111640930176e-01 4.3157893419265747e-01</leafValues></_>
        <_>
          <internalNodes>
            0 -1 45 -6.6185481846332550e-03</internalNodes>
          <leafValues>
            6.8581992387771606e-01 -6.4837998151779175e-01</leafValues></_>
        <_>
          <internalNodes>
            0 -1 37 -1.9020501349586993e-04</internalNodes>
          <leafValues>
            5.7177436351776123e-01 -7.8005343675613403e-01</leafValues></_>
        <_>
          <internalNodes>
            0 -1 0 9.4609835650771856e-04</internalNodes>
          <leafValues>
            4.6426731348037720e-01 -8.7761509418487549e-01</leafValues></_></weakClassifiers></_>
    <!-- stage 7 -->
    <_>
      <maxWeakCount>3</maxWeakCount>
      <stageThreshold>-8.3261615037918091e-01</stageThreshold>
      <weakClassifiers>
        <_>
          <internalNodes>
            0 -1 27 -1.1107277125120163e-01</internalNodes>
          <leafValues>
            4.8780488967895508e-01 -6.8965518474578857e-01</leafValues></_>
        <_>
          <internalNodes>
            0 -1 3 5.2106134593486786e-02</internalNodes>
          <leafValues>
            -7.1450835466384888e-01 5.3510850667953491e-01</leafValues></_>
        <_>
          <internalNodes>
            0 -1 43 -1.9720323383808136e-02</internalNodes>
          <leafValues>
            5.1063984632492065e-01 -6.7806947231292725e-01</leafValues></_></weakClassifiers></_>
    <!-- stage 8 -->
    <_>
      <maxWeakCount>4</maxWeakCount>
      <stageThreshold>-1.4300581812858582e-01</stageThreshold>
      <weakClassifiers>
        <_>
          <internalNodes>
            0 -1 25 -9.1993898153305054e-02</internalNodes>
          <leafValues>
            8.3999997377395630e-01 -4.6666666865348816e-01</leafValues></_>
        <_>
          <internalNodes>
            0 -1 41 -1.9338615238666534e-03</internalNodes>
          <leafValues>
            5.1587605476379395e-01 -7.9734253883361816e-01</leafValues></_>
        <_>
          <internalNodes>
            0 -1 32 -1.9698198884725571e-03</internalNodes>
          <leafValues>
            7.6942557096481323e-01 -5.6883567571640015e-01</leafValues></_>
        <_>
          <internalNodes>
            0 -1 59 -6.1862189322710037e-03</internalNodes>
          <leafValues>
            -1. 3.8317242264747620e-01</leafValues></_></weakClassifiers></_>
    <!-- stage 9 -->
    <_>
      <maxWeakCount>3</maxWeakCount>
      <stageThreshold>-7.8781908750534058e-01</stageThreshold>
      <weakClassifiers>
        <_>
          <internalNodes>
            0 -1 17 1.7619078789721243e-05</internalNodes>
          <leafValues>
            -6.1290323734283447e-01 4.8717948794364929e-01</leafValues></_>
        <_>
          <internalNodes>
            0 -1 49 -4.0069911628961563e-03</internalNodes>
          <leafValues>
            5.5451363325119019e-01 -6.8224757909774780e-01</leafValues></_>
        <_>
          <internalNodes>
            0 -1 29 -3.0814278870820999e-02</internalNodes>
          <leafValues>
            5.0733172893524170e-01 -8.2825058698654175e-01</leafValues></_></weakClassifiers></_>
    <!-- stage 10 -->
    <_>
      <maxWeakCount>4</maxWeakCount>
      <stageThreshold>-3.4792688488960266e-01</stageThreshold>
      <weakClassifiers>
        <_>
          <internalNodes>
            0 -1 30 2.0753165706992149e-02</internalNodes>
          <leafValues>
            3.8144329190254211e-01 -8.6046510934829712e-01</leafValues></_>
        <_>
          <internalNodes>
            0 -1 26 5.5301316082477570e-02</internalNodes>
          <leafValues>
            -4.0513557195663452e-01 9.6944594383239746e-01</leafValues></_>
        <_>
          <internalNodes>
            0 -1 58 7.7057993621565402e-05</internalNodes>
          <leafValues>
            -8.2037717103958130e-01 4.4282385706901550e-01</leafValues></_>
        <_>
          <internalNodes>
            0 -1 21 5.3792344406247139e-03</internalNodes>
          <leafValues>
            -7.6705843210220337e-01 5.2062332630157471e-01</leafValues></_></weakClassifiers></_>
    <!-- stage 11 -->
    <_>
      <maxWeakCount>4</maxWeakCount>
      <stageThreshold>-4.1660249233245850e-01</stageThreshold>
      <weakClassifiers>
        <_>
          <internalNodes>
            0 -1 64 -1.1399066715966910e-04</internalNodes>
          <leafValues>
            4.8148149251937866e-01 -6.6101694107055664e-01</leafValues></_>
        <_>
          <internalNodes>
            0 -1 4 4.0666144341230392e-02</internalNodes>
          <leafValues>
            -1. 3.3805286884307861e-01</leafValues></_>
        <_>
          <internalNodes>
            0 -1 28 -1.8497437238693237e-02</internalNodes>
          <leafValues>
            8.4502977132797241e-01 -4.7598898410797119e-01</leafValues></_>
        <_>
          <internalNodes>
            0 -1 46 -1.3365865015657619e-05</internalNodes>
          <leafValues>
            4.6874251961708069e-01 -7.6014786958694458e-01</leafValues></_></weakClassifiers></_>
    <!-- stage 12 -->
    <_>
      <maxWeakCount>4</maxWeakCount>
      <stageThreshold>-9.2417460680007935e-01</stageThreshold>
      <weakClassifiers>
        <_>
          <internalNodes>
            0 -1 62 1.0016071610152721e-03</internalNodes>
          <leafValues>
            3.8947367668151855e-01 -8.2222223281860352e-01</leafValues></_>
        <_>
          <internalNodes>
            0 -1 6 -1.0357296094298363e-02</internalNodes>
          <leafValues>
            8.7118220329284668e-01 -3.8784518837928772e-01</leafValues></_>
        <_>
          <internalNodes>
            0 -1 9 6.5227653831243515e-03</internalNodes>
          <leafValues>
            -4.7390061616897583e-01 6.8096679449081421e-01</leafValues></_>
        <_>
          <internalNodes>
            0 -1 38 -5.7878610678017139e-03</internalNodes>
          <leafValues>
            7.2900241613388062e-01 -4.5190250873565674e-01</leafValues></_></weakClassifiers></_>
    <!-- stage 13 -->
    <_>
      <maxWeakCount>4</maxWeakCount>
      <stageThreshold>-4.0134829282760620e-01</stageThreshold>
      <weakClassifiers>
        <_>
          <internalNodes>
            0 -1 44 -6.4936159178614616e-03</internalNodes>
          <leafValues>
            3.2673266530036926e-01 -8.4615385532379150e-01</leafValues></_>
        <_>
          <internalNodes>
            0 -1 63 -1.7568351177033037e-04</internalNodes>
          <leafValues>
            -8.8119840621948242e-01 3.0478885769844055e-01</leafValues></_>
        <_>
          <internalNodes>
            0 -1 47 -3.6951317451894283e-04</internalNodes>
          <leafValues>
            6.4864760637283325e-01 -5.0557231903076172e-01</leafValues></_>
        <_>
          <internalNodes>
            0 -1 22 2.6227536727674305e-04</internalNodes>
          <leafValues>
            6.4558899402618408e-01 -4.6988338232040405e-01</leafValues></_></weakClassifiers></_>
    <!-- stage 14 -->
    <_>
      <maxWeakCount>5</maxWeakCount>
      <stageThreshold>-5.8359807729721069e-01</stageThreshold>
      <weakClassifiers>
        <_>
          <internalNodes>
            0 -1 12 1.0536700487136841e-02</internalNodes>
          <leafValues>
            -4.5054945349693298e-01 8.3673471212387085e-01</leafValues></_>
        <_>
          <internalNodes>
            0 -1 2 1.6770444810390472e-02</internalNodes>
          <leafValues>
            -5.2206885814666748e-01 7.9322612285614014e-01</leafValues></_>
        <_>
          <internalNodes>
            0 -1 15 2.8522284701466560e-02</internalNodes>
          <leafValues>
            4.1102087497711182e-01 -9.1537463665008545e-01</leafValues></_>
        <_>
          <internalNodes>
            0 -1 55 -3.5332239349372685e-04</internalNodes>
          <leafValues>
            8.1623172760009766e-01 -4.8545056581497192e-01</leafValues></_>
        <_>
          <internalNodes>
            0 -1 56 4.9876980483531952e-04</internalNodes>
          <leafValues>
            4.6344989538192749e-01 -8.4881961345672607e-01</leafValues></_></weakClassifiers></_>
    <!-- stage 15 -->
    <_>
      <maxWeakCount>3</maxWeakCount>
      <stageThreshold>2.7906911447644234e-02</stageThreshold>
      <weakClassifiers>
        <_>
          <internalNodes>
            0 -1 48 8.4853637963533401e-04</internalNodes>
          <leafValues>
            3.2038834691047668e-01 -8.9189189672470093e-01</leafValues></_>
        <_>
          <internalNodes>
            0 -1 1 9.4322976656258106e-04</internalNodes>
          <leafValues>
            -6.5927058458328247e-01 4.5902708172798157e-01</leafValues></_>
        <_>
          <internalNodes>
            0 -1 42 -4.8612821847200394e-03</internalNodes>
          <leafValues>
            5.0211745500564575e-01 -7.5150853395462036e-01</leafValues></_></weakClassifiers></_>
    <!-- stage 16 -->
    <_>
      <maxWeakCount>4</maxWeakCount>
      <stageThreshold>-1.3565035164356232e-01</stageThreshold>
      <weakClassifiers>
        <_>
          <internalNodes>
            0 -1 36 1.2006529141217470e-03</internalNodes>
          <leafValues>
            4.1304346919059753e-01 -7.9166668653488159e-01</leafValues></_>
        <_>
          <internalNodes>
            0 -1 61 -4.5527396723628044e-03</internalNodes>
          <leafValues>
            -8.3956080675125122e-01 3.8817620277404785e-01</leafValues></_>
        <_>
          <internalNodes>
            0 -1 54 -2.8750067576766014e-04</internalNodes>
          <leafValues>
            8.9139103889465332e-01 -3.9623984694480896e-01</leafValues></_>
        <_>
          <internalNodes>
            0 -1 10 6.3005574047565460e-03</internalNodes>
          <leafValues>
            -5.2850025892257690e-01 6.8710684776306152e-01</leafValues></_></weakClassifiers></_>
    <!-- stage 17 -->
    <_>
      <maxWeakCount>3</maxWeakCount>
      <stageThreshold>8.2852452993392944e-02</stageThreshold>
      <weakClassifiers>
        <_>
          <internalNodes>
            0 -1 23 7.5367884710431099e-04</internalNodes>
          <leafValues>
            -9.3939393758773804e-01 2.8971961140632629e-01</leafValues></_>
        <_>
          <internalNodes>
            0 -1 35 -6.4468751661479473e-03</internalNodes>
          <leafValues>
            6.6890251636505127e-01 -4.7333359718322754e-01</leafValues></_>
        <_>
          <internalNodes>
            0 -1 50 -2.9013250023126602e-03</internalNodes>
          <leafValues>
            -8.7576967477798462e-01 4.2307874560356140e-01</leafValues></_></weakClassifiers></_>
    <!-- stage 18 -->
    <_>
      <maxWeakCount>4</maxWeakCount>
      <stageThreshold>2.1427636966109276e-02</stageThreshold>
      <weakClassifiers>
        <_>
          <internalNodes>
            0 -1 39 -1.7074806964956224e-04</internalNodes>
          <leafValues>
            -1. 2.5000000000000000e-01</leafValues></_>
        <_>
          <internalNodes>
            0 -1 13 3.5759091377258301e-02</internalNodes>
          <leafValues>
            -3.3914586901664734e-01 9.0978801250457764e-01</leafValues></_>
        <_>
          <internalNodes>
            0 -1 19 9.4618782401084900e-02</internalNodes>
          <leafValues>
            -2.3005048930644989e-01 1.</leafValues></_>
        <_>
          <internalNodes>
            0 -1 51 2.8562480583786964e-02</internalNodes>
          <leafValues>
            3.4062397480010986e-01 -1.</leafValues></_></weakClassifiers></_>
    <!-- stage 19 -->
    <_>
      <maxWeakCount>3</maxWeakCount>
      <stageThreshold>-5.8589071035385132e-01</stageThreshold>
      <weakClassifiers>
        <_>
          <internalNodes>
            0 -1 52 5.3386250510811806e-03</internalNodes>
          <leafValues>
            -5.4929578304290771e-01 5.6521737575531006e-01</leafValues></_>
        <_>
          <internalNodes>
            0 -1 5 7.4135838076472282e-04</internalNodes>
          <leafValues>
            3.9466482400894165e-01 -8.7395274639129639e-01</leafValues></_>
        <_>
          <internalNodes>
            0 -1 7 1.5793040394783020e-02</internalNodes>
          <leafValues>
            -4.3125978112220764e-01 7.4194824695587158e-01</leafValues></_></weakClassifiers></_></stages>
  <features>
    <_>
      <rects>
        <_>
          0 0 1 9 -1.</_>
        <_>
          0 3 1 3 3.</_></rects>
      <tilted>0</tilted></_>
    <_>
      <rects>
        <_>
          0 0 24 2 -1.</_>
        <_>
          12 0 12 2 2.</_></rects>
      <tilted>0</tilted></_>
    <_>
      <rects>
        <_>
          0 1 8 10 -1.</_>
        <_>
          0 1 4 5 2.</_>
        <_>
          4 6 4 5 2.</_></rects>
      <tilted>0</tilted></_>
    <_>
      <rects>
        <_>
          0 1 8 17 -1.</_>
        <_>
          4 1 4 17 2.</_></rects>
      <tilted>0</tilted></_>
    <_>
      <rects>
        <_>
          0 1 26 12 -1.</_>
        <_>
          0 5 26 4 3.</_></rects>
      <tilted>0</tilted></_>
    <_>
      <rects>
        <_>
          0 2 1 4 -1.</_>
        <_>
          0 4 1 2 2.</_></rects>
      <tilted>0</tilted></_>
    <_>
      <rects>
        <_>
          0 6 1 24 -1.</_>
        <_>
          0 14 1 8 3.</_></rects>
      <tilted>0</tilted></_>
    <_>
      <rects>
        <_>
          0 6 6 21 -1.</_>
        <_>
          2 6 2 21 3.</_></rects>
      <tilted>0</tilted></_>
    <_>
      <rects>
        <_>
          0 6 15 6 -1.</_>
        <_>
          5 6 5 6 3.</_></rects>
      <tilted>0</tilted></_>
    <_>
      <rects>
        <_>
          0 6 9 9 -1.</_>
        <_>
          0 9 9 3 3.</_></rects>
      <tilted>0</tilted></_>
    <_>
      <rects>
        <_>
          0 7 1 22 -1.</_>
        <_>
          0 18 1 11 2.</_></rects>
      <tilted>0</tilted></_>
    <_>
      <rects>
        <_>
          0 8 10 22 -1.</_>
        <_>
          0 8 5 11 2.</_>
        <_>
          5 19 5 11 2.</_></rects>
      <tilted>0</tilted></_>
    <_>
      <rects>
        <_>
          0 12 1 18 -1.</_>
        <_>
          0 21 1 9 2.</_></rects>
      <tilted>0</tilted></_>
    <_>
      <rects>
        <_>
          0 12 9 4 -1.</_>
        <_>
          3 12 3 4 3.</_></rects>
      <tilted>0</tilted></_>
    <_>
      <rects>
        <_>
          1 0 15 8 -1.</_>
        <_>
          1 4 15 4 2.</_></rects>
      <tilted>0</tilted></_>
    <_>
      <rects>
        <_>
          1 4 29 6 -1.</_>
        <_>
          1 6 29 2 3.</_></rects>
      <tilted>0</tilted></_>
    <_>
      <rects>
        <_>
          1 6 6 5 -1.</_>
        <_>
          4 6 3 5 2.</_></rects>
      <tilted>0</tilted></_>
    <_>
      <rects>
        <_>
          2 0 20 1 -1.</_>
        <_>
          12 0 10 1 2.</_></rects>
      <tilted>0</tilted></_>
    <_>
      <rects>
        <_>
          2 0 23 8 -1.</_>
        <_>
          2 4 23 4 2.</_></rects>
      <tilted>0</tilted></_>
    <_>
      <rects>
        <_>
          2 4 10 21 -1.</_>
        <_>
          7 4 5 21 2.</_></rects>
      <tilted>0</tilted></_>
    <_>
      <rects>
        <_>
          3 1 15 6 -1.</_>
        <_>
          3 4 15 3 2.</_></rects>
      <tilted>0</tilted></_>
    <_>
      <rects>
        <_>
          3 2 24 2 -1.</_>
        <_>
          3 3 24 1 2.</_></rects>
      <tilted>0</tilted></_>
    <_>
      <rects>
        <_>
          3 4 9 2 -1.</_>
        <_>
          6 4 3 2 3.</_></rects>
      <tilted>0</tilted></_>
    <_>
      <rects>
        <_>
          3 4 27 9 -1.</_>
        <_>
          3 7 27 3 3.</_></rects>
      <tilted>0</tilted></_>
    <_>
      <rects>
        <_>
          3 14 20 4 -1.</_>
        <_>
          3 16 20 2 2.</_></rects>
      <tilted>0</tilted></_>
    <_>
      <rects>
        <_>
          3 18 27 7 -1.</_>
        <_>
          12 18 9 7 3.</_></rects>
      <tilted>0</tilted></_>
    <_>
      <rects>
        <_>
          4 0 2 27 -1.</_>
        <_>
          4 9 2 9 3.</_></rects>
      <tilted>0</tilted></_>
    <_>
      <rects>
        <_>
          4 9 16 20 -1.</_>
        <_>
          12 9 8 20 2.</_></rects>
      <tilted>0</tilted></_>
    <_>
      <rects>
        <_>
          4 12 8 5 -1.</_>
        <_>
          8 12 4 5 2.</_></rects>
      <tilted>0</tilted></_>
    <_>
      <rects>
        <_>
          4 18 16 9 -1.</_>
        <_>
          12 18 8 9 2.</_></rects>
      <tilted>0</tilted></_>
    <_>
      <rects>
        <_>
          5 9 24 9 -1.</_>
        <_>
          5 12 24 3 3.</_></rects>
      <tilted>0</tilted></_>
    <_>
      <rects>
        <_>
          5 25 11 2 -1.</_>
        <_>
          5 26 11 1 2.</_></rects>
      <tilted>0</tilted></_>
    <_>
      <rects>
        <_>
          6 7 4 3 -1.</_>
        <_>
          8 7 2 3 2.</_></rects>
      <tilted>0</tilted></_>
    <_>
      <rects>
        <_>
          6 7 12 12 -1.</_>
        <_>
          12 7 6 12 2.</_></rects>
      <tilted>0</tilted></_>
    <_>
      <rects>
        <_>
          6 19 24 8 -1.</_>
        <_>
          14 19 8 8 3.</_></rects>
      <tilted>0</tilted></_>
    <_>
      <rects>
        <_>
          6 24 11 4 -1.</_>
        <_>
          6 26 11 2 2.</_></rects>
      <tilted>0</tilted></_>
    <_>
      <rects>
        <_>
          7 9 9 2 -1.</_>
        <_>
          10 9 3 2 3.</_></rects>
      <tilted>0</tilted></_>
    <_>
      <rects>
        <_>
          8 9 2 2 -1.</_>
        <_>
          9 9 1 2 2.</_></rects>
      <tilted>0</tilted></_>
    <_>
      <rects>
        <_>
          8 19 2 10 -1.</_>
        <_>
          8 24 2 5 2.</_></rects>
      <tilted>0</tilted></_>
    <_>
      <rects>
        <_>
          9 0 1 2 -1.</_>
        <_>
          9 1 1 1 2.</_></rects>
      <tilted>0</tilted></_>
    <_>
      <rects>
        <_>
          10 6 16 4 -1.</_>
        <_>
          18 6 8 4 2.</_></rects>
      <tilted>0</tilted></_>
    <_>
      <rects>
        <_>
          10 8 4 6 -1.</_>
        <_>
          12 8 2 6 2.</_></rects>
      <tilted>0</tilted></_>
    <_>
      <rects>
        <_>
          10 13 10 3 -1.</_>
        <_>
          15 13 5 3 2.</_></rects>
      <tilted>0</tilted></_>
    <_>
      <rects>
        <_>
          11 0 18 8 -1.</_>
        <_>
          11 0 9 4 2.</_>
        <_>
          20 4 9 4 2.</_></rects>
      <tilted>0</tilted></_>
    <_>
      <rects>
        <_>
          11 4 6 13 -1.</_>
        <_>
          14 4 3 13 2.</_></rects>
      <tilted>0</tilted></_>
    <_>
      <rects>
        <_>
          12 1 16 4 -1.</_>
        <_>
          12 1 8 2 2.</_>
        <_>
          20 3 8 2 2.</_></rects>
      <tilted>0</tilted></_>
    <_>
      <rects>
        <_>
          12 12 2 1 -1.</_>
        <_>
          13 12 1 1 2.</_></rects>
      <tilted>0</tilted></_>
    <_>
      <rects>
        <_>
          16 19 6 2 -1.</_>
        <_>
          16 20 6 1 2.</_></rects>
      <tilted>0</tilted></_>
    <_>
      <rects>
        <_>
          17 0 6 2 -1.</_>
        <_>
          17 1 6 1 2.</_></rects>
      <tilted>0</tilted></_>
    <_>
      <rects>
        <_>
          17 1 12 8 -1.</_>
        <_>
          17 1 6 4 2.</_>
        <_>
          23 5 6 4 2.</_></rects>
      <tilted>0</tilted></_>
    <_>
      <rects>
        <_>
          18 9 9 4 -1.</_>
        <_>
          18 11 9 2 2.</_></rects>
      <tilted>0</tilted></_>
    <_>
      <rects>
        <_>
          18 10 10 11 -1.</_>
        <_>
          23 10 5 11 2.</_></rects>
      <tilted>0</tilted></_>
    <_>
      <rects>
        <_>
          20 15 8 9 -1.</_>
        <_>
          24 15 4 9 2.</_></rects>
      <tilted>0</tilted></_>
    <_>
      <rects>
        <_>
          22 8 8 22 -1.</_>
        <_>
          22 8 4 11 2.</_>
        <_>
          26 19 4 11 2.</_></rects>
      <tilted>0</tilted></_>
    <_>
      <rects>
        <_>
          22 23 2 2 -1.</_>
        <_>
          22 24 2 1 2.</_></rects>
      <tilted>0</tilted></_>
    <_>
      <rects>
        <_>
          22 25 2 3 -1.</_>
        <_>
          22 26 2 1 3.</_></rects>
      <tilted>0</tilted></_>
    <_>
      <rects>
        <_>
          23 15 7 2 -1.</_>
        <_>
          23 16 7 1 2.</_></rects>
      <tilted>0</tilted></_>
    <_>
      <rects>
        <_>
          24 0 6 9 -1.</_>
        <_>
          26 0 2 9 3.</_></rects>
      <tilted>0</tilted></_>
    <_>
      <rects>
        <_>
          24 4 6 24 -1.</_>
        <_>
          24 4 3 12 2.</_>
        <_>
          27 16 3 12 2.</_></rects>
      <tilted>0</tilted></_>
    <_>
      <rects>
        <_>
          26 0 3 14 -1.</_>
        <_>
          26 7 3 7 2.</_></rects>
      <tilted>0</tilted></_>
    <_>
      <rects>
        <_>
          26 5 2 12 -1.</_>
        <_>
          26 11 2 6 2.</_></rects>
      <tilted>0</tilted></_>
    <_>
      <rects>
        <_>
          26 6 4 22 -1.</_>
        <_>
          26 17 4 11 2.</_></rects>
      <tilted>0</tilted></_>
    <_>
      <rects>
        <_>
          26 7 2 6 -1.</_>
        <_>
          26 9 2 2 3.</_></rects>
      <tilted>0</tilted></_>
    <_>
      <rects>
        <_>
          28 27 2 2 -1.</_>
        <_>
          29 27 1 2 2.</_></rects>
      <tilted>0</tilted></_>
    <_>
      <rects>
        <_>
          29 26 1 4 -1.</_>
        <_>
          29 28 1 2 2.</_></rects>
      <tilted>0</tilted></_></features></cascade>
</opencv_storage>
